// Otomatik uretildi

#define N_INPUT  16
#define N_HIDDEN  8
#define N_OUTPUT  4

float mean[] = {496.053741f, 505.631989f, 507.593994f, 508.289764f, 508.279999f, 505.855743f, 503.578247f, 502.187012f, 501.825012f, 503.401245f, 506.534241f, 508.411011f, 508.280243f, 507.647247f, 506.212250f, 496.847260f};
float scale[] = {368.281403f, 283.304688f, 226.746567f, 213.115494f, 228.725403f, 250.875229f, 267.177979f, 275.012329f, 275.341736f, 267.371857f, 251.081223f, 228.621033f, 212.924469f, 227.548264f, 283.359680f, 368.395264f};
float W1[] = {0.313748f, 0.264962f, 0.198530f, -0.005948f, 0.264290f, -0.012206f, -0.158756f, -0.146554f, -0.273733f, -0.143257f, -0.687408f, -0.138793f, -0.090033f, -0.218000f, -0.314206f, 0.074517f, -0.229150f, -0.733764f, -0.467140f, -0.490712f, -0.382601f, -0.048494f, 0.412183f, 0.348502f, 0.430721f, 0.111530f, 0.049892f, 0.032716f, 0.111860f, -0.172192f, -0.421149f, -0.656477f, 0.394396f, 0.645050f, 0.336764f, 0.368622f, 0.099773f, -0.343220f, -0.375787f, -0.232368f, -0.654505f, -0.480588f, -0.597691f, -0.199183f, -0.207697f, -0.476698f, 0.142696f, 0.387432f, -0.534124f, -0.640154f, -0.630348f, -0.748784f, -0.804520f, -0.641030f, -0.174484f, -0.015625f, 0.362428f, 0.163040f, 0.384303f, 0.760660f, 0.749287f, 0.671557f, 0.649157f, 0.671960f, -0.189399f, -0.319750f, 0.282356f, 0.475292f, 0.425856f, 0.427918f, 0.174986f, 0.354253f, 0.161407f, 0.257600f, 0.047620f, -0.407304f, -0.357233f, -0.613596f, -0.485379f, -0.711282f, 0.570935f, 0.421304f, -0.450079f, -0.368208f, -0.556352f, -0.607983f, -0.660628f, -0.711757f, -0.521121f, -0.341516f, -0.504488f, 0.011544f, 0.337176f, 0.724772f, 0.482252f, 0.455944f, -0.390421f, -0.590250f, -0.187690f, -0.309381f, -0.129252f, 0.581466f, 0.803641f, 0.669691f, 0.499975f, 0.513483f, 0.371243f, -0.022426f, -0.220252f, -0.331874f, -0.089239f, -0.507113f, 0.297227f, 0.393163f, 0.535179f, 0.652551f, 0.627617f, 0.601056f, 0.344065f, 0.034397f, -0.550153f, -0.307142f, -0.389223f, -0.565456f, -0.479904f, -0.404200f, -0.653915f, -0.465200f};
float b1[] = {0.149691f, 0.885328f, 0.655099f, 0.271594f, 0.341381f, 0.381381f, 0.081184f, 0.228922f};
float W2[] = {-0.155766f, 0.233818f, -0.644049f, 0.451939f, -0.510822f, 0.647382f, -0.496899f, -0.484499f, 0.331410f, -0.026427f, 0.551449f, -0.572102f, 0.497116f, -0.309981f, -0.696866f, 0.852039f, 0.376002f, -0.608897f, 0.941785f, -0.649361f, -0.803420f, 0.879036f, -0.311809f, -0.399033f, -0.134882f, 0.748237f, -0.746070f, -0.733756f, 0.619196f, -0.530901f, 0.657069f, -0.211964f};
float b2[] = {0.206605f, -0.293348f, -0.155861f, 0.080722f};
